Language model created by QuickLM on Thu Apr  1 05:16:39 EDT 2021
Copyright (c) 1996-2010 Carnegie Mellon University and Alexander I. Rudnicky

The model is in standard ARPA format, designed by Doug Paul while he was at MITRE.

The code that was used to produce this language model is available in Open Source.
Please visit http://www.speech.cs.cmu.edu/tools/ for more information

The (fixed) discount mass is 0.5. The backoffs are computed using the ratio method.
This model based on a corpus of 57 sentences and 56 words

\data\
ngram 1=56
ngram 2=111
ngram 3=69

\1-grams:
-2.5635 0 -0.2275
-2.5635 1 -0.2275
-2.5635 10 -0.2275
-2.5635 100 -0.2275
-2.5635 2 -0.2275
-2.5635 20 -0.2275
-2.5635 3 -0.2275
-2.5635 30 -0.2275
-2.5635 4 -0.2275
-2.5635 40 -0.2275
-2.5635 5 -0.2275
-2.5635 50 -0.2275
-2.5635 6 -0.2275
-2.5635 60 -0.2275
-2.5635 7 -0.2275
-2.5635 70 -0.2275
-2.5635 8 -0.2275
-2.5635 80 -0.2275
-2.5635 9 -0.2275
-2.5635 90 -0.2275
-0.8076 </s> -0.3010
-0.8076 <s> -0.2233
-2.5635 ACCOUNT -0.2275
-2.5635 ALIGNER -0.2275
-2.2625 ASSISTANT -0.2275
-2.5635 BACK -0.2275
-2.5635 BANK -0.2998
-2.2625 BROWSER -0.2275
-2.5635 CHANGE -0.2275
-1.9614 CLOSE -0.2914
-2.5635 DIALOG -0.2275
-2.5635 DIGITS -0.2275
-2.5635 DOWN -0.2275
-2.5635 EXIT -0.2275
-2.2625 HELLO -0.2963
-2.5635 LEFT -0.2275
-2.5635 MAXIMIZE -0.2275
-2.5635 MINIMIZE -0.2275
-2.5635 NEXT -0.2275
-1.8645 OPEN -0.2161
-2.5635 OPTION -0.2275
-2.5635 PLAY -0.2275
-2.5635 PRESS -0.2275
-2.5635 REC -0.2275
-2.5635 RIGHT -0.2275
-2.5635 SLEEP -0.2275
-2.5635 SPEAK -0.2275
-2.5635 SPEAKER -0.2275
-2.2625 TEAMS -0.2275
-2.2625 TERMINAL -0.2275
-2.2625 THUNDERBIRD -0.2275
-2.5635 TOP -0.2275
-2.5635 TOUCH -0.2275
-2.2625 TRANSCRIBER -0.2275
-2.2625 UP -0.2275
-2.5635 WAKE -0.2987

\2-grams:
-0.3010 0 </s> -0.3010
-0.3010 1 </s> -0.3010
-0.3010 10 </s> -0.3010
-0.3010 100 </s> -0.3010
-0.3010 2 </s> -0.3010
-0.3010 20 </s> -0.3010
-0.3010 3 </s> -0.3010
-0.3010 30 </s> -0.3010
-0.3010 4 </s> -0.3010
-0.3010 40 </s> -0.3010
-0.3010 5 </s> -0.3010
-0.3010 50 </s> -0.3010
-0.3010 6 </s> -0.3010
-0.3010 60 </s> -0.3010
-0.3010 7 </s> -0.3010
-0.3010 70 </s> -0.3010
-0.3010 8 </s> -0.3010
-0.3010 80 </s> -0.3010
-0.3010 9 </s> -0.3010
-0.3010 90 </s> -0.3010
-2.0569 <s> 0 0.0000
-2.0569 <s> 1 0.0000
-2.0569 <s> 10 0.0000
-2.0569 <s> 100 0.0000
-2.0569 <s> 2 0.0000
-2.0569 <s> 20 0.0000
-2.0569 <s> 3 0.0000
-2.0569 <s> 30 0.0000
-2.0569 <s> 4 0.0000
-2.0569 <s> 40 0.0000
-2.0569 <s> 5 0.0000
-2.0569 <s> 50 0.0000
-2.0569 <s> 6 0.0000
-2.0569 <s> 60 0.0000
-2.0569 <s> 7 0.0000
-2.0569 <s> 70 0.0000
-2.0569 <s> 8 0.0000
-2.0569 <s> 80 0.0000
-2.0569 <s> 9 0.0000
-2.0569 <s> 90 0.0000
-2.0569 <s> ALIGNER 0.0000
-2.0569 <s> ASSISTANT 0.0000
-2.0569 <s> BACK 0.0000
-2.0569 <s> BANK 0.0000
-2.0569 <s> CHANGE 0.0000
-1.4548 <s> CLOSE 0.0000
-2.0569 <s> DIALOG 0.0000
-2.0569 <s> DIGITS 0.0000
-2.0569 <s> DOWN 0.0000
-2.0569 <s> EXIT 0.0000
-1.7559 <s> HELLO 0.0000
-2.0569 <s> LEFT 0.0000
-2.0569 <s> MAXIMIZE 0.0000
-2.0569 <s> MINIMIZE 0.0000
-2.0569 <s> NEXT 0.0000
-1.3579 <s> OPEN 0.0000
-2.0569 <s> OPTION 0.0000
-2.0569 <s> PLAY 0.0000
-2.0569 <s> PRESS 0.0000
-2.0569 <s> REC 0.0000
-2.0569 <s> RIGHT 0.0000
-2.0569 <s> SLEEP 0.0000
-2.0569 <s> SPEAK 0.0000
-2.0569 <s> SPEAKER 0.0000
-2.0569 <s> TOP 0.0000
-2.0569 <s> TOUCH 0.0000
-2.0569 <s> TRANSCRIBER 0.0000
-2.0569 <s> UP 0.0000
-2.0569 <s> WAKE 0.0000
-0.3010 ACCOUNT </s> -0.3010
-0.3010 ALIGNER </s> -0.3010
-0.3010 ASSISTANT </s> -0.3010
-0.3010 BACK </s> -0.3010
-0.3010 BANK ACCOUNT 0.0000
-0.3010 BROWSER </s> -0.3010
-0.3010 CHANGE </s> -0.3010
-0.9031 CLOSE BROWSER 0.0000
-0.9031 CLOSE TEAMS 0.0000
-0.9031 CLOSE TERMINAL 0.0000
-0.9031 CLOSE THUNDERBIRD 0.0000
-0.3010 DIALOG </s> -0.3010
-0.3010 DIGITS </s> -0.3010
-0.3010 DOWN </s> -0.3010
-0.3010 EXIT </s> -0.3010
-0.6021 HELLO ASSISTANT 0.0000
-0.6021 HELLO TRANSCRIBER 0.0000
-0.3010 LEFT </s> -0.3010
-0.3010 MAXIMIZE </s> -0.3010
-0.3010 MINIMIZE </s> -0.3010
-0.3010 NEXT </s> -0.3010
-1.0000 OPEN </s> -0.3010
-1.0000 OPEN BROWSER 0.0000
-1.0000 OPEN TEAMS 0.0000
-1.0000 OPEN TERMINAL 0.0000
-1.0000 OPEN THUNDERBIRD 0.0000
-0.3010 OPTION </s> -0.3010
-0.3010 PLAY </s> -0.3010
-0.3010 PRESS </s> -0.3010
-0.3010 REC </s> -0.3010
-0.3010 RIGHT </s> -0.3010
-0.3010 SLEEP </s> -0.3010
-0.3010 SPEAK </s> -0.3010
-0.3010 SPEAKER </s> -0.3010
-0.3010 TEAMS </s> -0.3010
-0.3010 TERMINAL </s> -0.3010
-0.3010 THUNDERBIRD </s> -0.3010
-0.3010 TOP </s> -0.3010
-0.3010 TOUCH </s> -0.3010
-0.3010 TRANSCRIBER </s> -0.3010
-0.3010 UP </s> -0.3010
-0.3010 WAKE UP 0.0000

\3-grams:
-0.3010 <s> 0 </s>
-0.3010 <s> 1 </s>
-0.3010 <s> 10 </s>
-0.3010 <s> 100 </s>
-0.3010 <s> 2 </s>
-0.3010 <s> 20 </s>
-0.3010 <s> 3 </s>
-0.3010 <s> 30 </s>
-0.3010 <s> 4 </s>
-0.3010 <s> 40 </s>
-0.3010 <s> 5 </s>
-0.3010 <s> 50 </s>
-0.3010 <s> 6 </s>
-0.3010 <s> 60 </s>
-0.3010 <s> 7 </s>
-0.3010 <s> 70 </s>
-0.3010 <s> 8 </s>
-0.3010 <s> 80 </s>
-0.3010 <s> 9 </s>
-0.3010 <s> 90 </s>
-0.3010 <s> ALIGNER </s>
-0.3010 <s> ASSISTANT </s>
-0.3010 <s> BACK </s>
-0.3010 <s> BANK ACCOUNT
-0.3010 <s> CHANGE </s>
-0.9031 <s> CLOSE BROWSER
-0.9031 <s> CLOSE TEAMS
-0.9031 <s> CLOSE TERMINAL
-0.9031 <s> CLOSE THUNDERBIRD
-0.3010 <s> DIALOG </s>
-0.3010 <s> DIGITS </s>
-0.3010 <s> DOWN </s>
-0.3010 <s> EXIT </s>
-0.6021 <s> HELLO ASSISTANT
-0.6021 <s> HELLO TRANSCRIBER
-0.3010 <s> LEFT </s>
-0.3010 <s> MAXIMIZE </s>
-0.3010 <s> MINIMIZE </s>
-0.3010 <s> NEXT </s>
-1.0000 <s> OPEN </s>
-1.0000 <s> OPEN BROWSER
-1.0000 <s> OPEN TEAMS
-1.0000 <s> OPEN TERMINAL
-1.0000 <s> OPEN THUNDERBIRD
-0.3010 <s> OPTION </s>
-0.3010 <s> PLAY </s>
-0.3010 <s> PRESS </s>
-0.3010 <s> REC </s>
-0.3010 <s> RIGHT </s>
-0.3010 <s> SLEEP </s>
-0.3010 <s> SPEAK </s>
-0.3010 <s> SPEAKER </s>
-0.3010 <s> TOP </s>
-0.3010 <s> TOUCH </s>
-0.3010 <s> TRANSCRIBER </s>
-0.3010 <s> UP </s>
-0.3010 <s> WAKE UP
-0.3010 BANK ACCOUNT </s>
-0.3010 CLOSE BROWSER </s>
-0.3010 CLOSE TEAMS </s>
-0.3010 CLOSE TERMINAL </s>
-0.3010 CLOSE THUNDERBIRD </s>
-0.3010 HELLO ASSISTANT </s>
-0.3010 HELLO TRANSCRIBER </s>
-0.3010 OPEN BROWSER </s>
-0.3010 OPEN TEAMS </s>
-0.3010 OPEN TERMINAL </s>
-0.3010 OPEN THUNDERBIRD </s>
-0.3010 WAKE UP </s>

\end\
